<?xml version="1.0"?>
<opencv_storage>
<cascade>
  <stageType>BOOST</stageType>
  <featureType>HAAR</featureType>
  <height>24</height>
  <width>32</width>
  <stageParams>
    <boostType>GAB</boostType>
    <minHitRate>9.9500000476837158e-01</minHitRate>
    <maxFalseAlarm>3.0000001192092896e-01</maxFalseAlarm>
    <weightTrimRate>9.4999999999999996e-01</weightTrimRate>
    <maxDepth>1</maxDepth>
    <maxWeakCount>100</maxWeakCount></stageParams>
  <featureParams>
    <maxCatCount>0</maxCatCount>
    <featSize>1</featSize>
    <mode>BASIC</mode></featureParams>
  <stageNum>10</stageNum>
  <stages>
    <!-- stage 0 -->
    <_>
      <maxWeakCount>4</maxWeakCount>
      <stageThreshold>-3.1987836956977844e-01</stageThreshold>
      <weakClassifiers>
        <_>
          <internalNodes>
            0 -1 17 3.4375686198472977e-02</internalNodes>
          <leafValues>
            4.2181816697120667e-01 -9.2799997329711914e-01</leafValues></_>
        <_>
          <internalNodes>
            0 -1 48 1.1724273674190044e-02</internalNodes>
          <leafValues>
            -6.7211794853210449e-01 5.9585237503051758e-01</leafValues></_>
        <_>
          <internalNodes>
            0 -1 11 -2.9368000105023384e-03</internalNodes>
          <leafValues>
            4.7059062123298645e-01 -7.2547882795333862e-01</leafValues></_>
        <_>
          <internalNodes>
            0 -1 16 -6.3830733299255371e-02</internalNodes>
          <leafValues>
            7.6909905672073364e-01 -4.5832139253616333e-01</leafValues></_></weakClassifiers></_>
    <!-- stage 1 -->
    <_>
      <maxWeakCount>8</maxWeakCount>
      <stageThreshold>-5.6454515457153320e-01</stageThreshold>
      <weakClassifiers>
        <_>
          <internalNodes>
            0 -1 25 2.5492992717772722e-03</internalNodes>
          <leafValues>
            -5.1756441593170166e-01 5.9249329566955566e-01</leafValues></_>
        <_>
          <internalNodes>
            0 -1 39 -1.8689217045903206e-02</internalNodes>
          <leafValues>
            6.6536378860473633e-01 -5.0208652019500732e-01</leafValues></_>
        <_>
          <internalNodes>
            0 -1 29 -5.0955396145582199e-02</internalNodes>
          <leafValues>
            6.4843410253524780e-01 -4.0184041857719421e-01</leafValues></_>
        <_>
          <internalNodes>
            0 -1 50 -7.8079961240291595e-03</internalNodes>
          <leafValues>
            6.4275401830673218e-01 -4.7066569328308105e-01</leafValues></_>
        <_>
          <internalNodes>
            0 -1 51 -8.1612932262942195e-05</internalNodes>
          <leafValues>
            4.3786308169364929e-01 -7.3676699399948120e-01</leafValues></_>
        <_>
          <internalNodes>
            0 -1 7 -3.5539045929908752e-03</internalNodes>
          <leafValues>
            6.1210340261459351e-01 -5.0636637210845947e-01</leafValues></_>
        <_>
          <internalNodes>
            0 -1 34 -2.2478427272289991e-03</internalNodes>
          <leafValues>
            8.0057740211486816e-01 -3.3588862419128418e-01</leafValues></_>
        <_>
          <internalNodes>
            0 -1 66 -5.4160556755959988e-03</internalNodes>
          <leafValues>
            6.8172931671142578e-01 -3.7371966242790222e-01</leafValues></_></weakClassifiers></_>
    <!-- stage 2 -->
    <_>
      <maxWeakCount>8</maxWeakCount>
      <stageThreshold>-7.0486468076705933e-01</stageThreshold>
      <weakClassifiers>
        <_>
          <internalNodes>
            0 -1 28 7.7302553690969944e-03</internalNodes>
          <leafValues>
            -5.2162849903106689e-01 5.0368547439575195e-01</leafValues></_>
        <_>
          <internalNodes>
            0 -1 38 -9.6992310136556625e-03</internalNodes>
          <leafValues>
            4.7470360994338989e-01 -5.8058041334152222e-01</leafValues></_>
        <_>
          <internalNodes>
            0 -1 67 7.7808378264307976e-03</internalNodes>
          <leafValues>
            -4.0877839922904968e-01 7.3487693071365356e-01</leafValues></_>
        <_>
          <internalNodes>
            0 -1 23 1.0044123046100140e-03</internalNodes>
          <leafValues>
            -3.6025890707969666e-01 5.9039455652236938e-01</leafValues></_>
        <_>
          <internalNodes>
            0 -1 35 -2.1957752760499716e-03</internalNodes>
          <leafValues>
            5.9370148181915283e-01 -4.0127405524253845e-01</leafValues></_>
        <_>
          <internalNodes>
            0 -1 2 7.2257861029356718e-04</internalNodes>
          <leafValues>
            3.6157417297363281e-01 -7.4200159311294556e-01</leafValues></_>
        <_>
          <internalNodes>
            0 -1 26 -3.9295196533203125e-02</internalNodes>
          <leafValues>
            6.6845351457595825e-01 -3.6434423923492432e-01</leafValues></_>
        <_>
          <internalNodes>
            0 -1 59 -1.2807810306549072e-01</internalNodes>
          <leafValues>
            6.8664932250976563e-01 -3.5725003480911255e-01</leafValues></_></weakClassifiers></_>
    <!-- stage 3 -->
    <_>
      <maxWeakCount>7</maxWeakCount>
      <stageThreshold>-7.2531795501708984e-01</stageThreshold>
      <weakClassifiers>
        <_>
          <internalNodes>
            0 -1 9 -6.6269189119338989e-03</internalNodes>
          <leafValues>
            7.1724140644073486e-01 -4.0784314274787903e-01</leafValues></_>
        <_>
          <internalNodes>
            0 -1 45 1.7560835927724838e-02</internalNodes>
          <leafValues>
            -5.6490308046340942e-01 5.5858063697814941e-01</leafValues></_>
        <_>
          <internalNodes>
            0 -1 1 -2.8437684522941709e-04</internalNodes>
          <leafValues>
            -7.2643518447875977e-01 3.8022005558013916e-01</leafValues></_>
        <_>
          <internalNodes>
            0 -1 0 -4.9912137910723686e-03</internalNodes>
          <leafValues>
            -6.6119110584259033e-01 4.6782115101814270e-01</leafValues></_>
        <_>
          <internalNodes>
            0 -1 32 -3.3896416425704956e-03</internalNodes>
          <leafValues>
            4.6676281094551086e-01 -6.2663710117340088e-01</leafValues></_>
        <_>
          <internalNodes>
            0 -1 54 -1.5267318813130260e-03</internalNodes>
          <leafValues>
            5.8152025938034058e-01 -5.0904107093811035e-01</leafValues></_>
        <_>
          <internalNodes>
            0 -1 6 -4.9407319165766239e-03</internalNodes>
          <leafValues>
            6.0193341970443726e-01 -5.3831303119659424e-01</leafValues></_></weakClassifiers></_>
    <!-- stage 4 -->
    <_>
      <maxWeakCount>6</maxWeakCount>
      <stageThreshold>-2.8738465905189514e-01</stageThreshold>
      <weakClassifiers>
        <_>
          <internalNodes>
            0 -1 61 -2.8131024446338415e-03</internalNodes>
          <leafValues>
            5.4189944267272949e-01 -4.3891403079032898e-01</leafValues></_>
        <_>
          <internalNodes>
            0 -1 65 1.3733301311731339e-03</internalNodes>
          <leafValues>
            2.8285697102546692e-01 -8.1869179010391235e-01</leafValues></_>
        <_>
          <internalNodes>
            0 -1 24 4.2533010244369507e-02</internalNodes>
          <leafValues>
            -3.1905332207679749e-01 8.1422185897827148e-01</leafValues></_>
        <_>
          <internalNodes>
            0 -1 52 -2.7727071195840836e-02</internalNodes>
          <leafValues>
            4.8500344157218933e-01 -4.1120570898056030e-01</leafValues></_>
        <_>
          <internalNodes>
            0 -1 13 -3.1515317969024181e-03</internalNodes>
          <leafValues>
            3.8404294848442078e-01 -6.7426478862762451e-01</leafValues></_>
        <_>
          <internalNodes>
            0 -1 53 -4.2259358451701701e-05</internalNodes>
          <leafValues>
            3.7698706984519958e-01 -5.2803534269332886e-01</leafValues></_></weakClassifiers></_>
    <!-- stage 5 -->
    <_>
      <maxWeakCount>7</maxWeakCount>
      <stageThreshold>-8.6643302440643311e-01</stageThreshold>
      <weakClassifiers>
        <_>
          <internalNodes>
            0 -1 19 -7.4622663669288158e-04</internalNodes>
          <leafValues>
            -5.5240792036056519e-01 4.3624159693717957e-01</leafValues></_>
        <_>
          <internalNodes>
            0 -1 71 -1.8815889779943973e-04</internalNodes>
          <leafValues>
            -5.9486919641494751e-01 3.6525294184684753e-01</leafValues></_>
        <_>
          <internalNodes>
            0 -1 10 -9.1227993834763765e-05</internalNodes>
          <leafValues>
            -7.6436948776245117e-01 2.8794640302658081e-01</leafValues></_>
        <_>
          <internalNodes>
            0 -1 8 -2.3723606020212173e-02</internalNodes>
          <leafValues>
            9.1321063041687012e-01 -2.6688280701637268e-01</leafValues></_>
        <_>
          <internalNodes>
            0 -1 57 4.1642151772975922e-03</internalNodes>
          <leafValues>
            3.2927969098091125e-01 -7.8672862052917480e-01</leafValues></_>
        <_>
          <internalNodes>
            0 -1 18 -1.8219563644379377e-03</internalNodes>
          <leafValues>
            6.7327588796615601e-01 -3.6851656436920166e-01</leafValues></_>
        <_>
          <internalNodes>
            0 -1 43 -9.1933319345116615e-03</internalNodes>
          <leafValues>
            -9.2983824014663696e-01 2.9901736974716187e-01</leafValues></_></weakClassifiers></_>
    <!-- stage 6 -->
    <_>
      <maxWeakCount>9</maxWeakCount>
      <stageThreshold>-4.5477586984634399e-01</stageThreshold>
      <weakClassifiers>
        <_>
          <internalNodes>
            0 -1 5 -4.5406486606225371e-04</internalNodes>
          <leafValues>
            -8.8505744934082031e-01 2.4600638449192047e-01</leafValues></_>
        <_>
          <internalNodes>
            0 -1 30 2.4004229344427586e-03</internalNodes>
          <leafValues>
            -6.1520349979400635e-01 3.1694358587265015e-01</leafValues></_>
        <_>
          <internalNodes>
            0 -1 27 -2.0872158929705620e-03</internalNodes>
          <leafValues>
            5.2443325519561768e-01 -3.5407790541648865e-01</leafValues></_>
        <_>
          <internalNodes>
            0 -1 14 -7.8552795457653701e-05</internalNodes>
          <leafValues>
            -5.9335827827453613e-01 3.6119896173477173e-01</leafValues></_>
        <_>
          <internalNodes>
            0 -1 21 4.4126557186245918e-03</internalNodes>
          <leafValues>
            -2.8756287693977356e-01 6.9284957647323608e-01</leafValues></_>
        <_>
          <internalNodes>
            0 -1 3 -3.8520909845829010e-02</internalNodes>
          <leafValues>
            -8.1674188375473022e-01 2.2557948529720306e-01</leafValues></_>
        <_>
          <internalNodes>
            0 -1 20 -3.3213960705325007e-04</internalNodes>
          <leafValues>
            -8.7998908758163452e-01 1.6875533759593964e-01</leafValues></_>
        <_>
          <internalNodes>
            0 -1 31 1.0465679224580526e-03</internalNodes>
          <leafValues>
            3.3565279841423035e-01 -5.8127921819686890e-01</leafValues></_>
        <_>
          <internalNodes>
            0 -1 12 1.1532738059759140e-01</internalNodes>
          <leafValues>
            -2.6787579059600830e-01 9.0789824724197388e-01</leafValues></_></weakClassifiers></_>
    <!-- stage 7 -->
    <_>
      <maxWeakCount>8</maxWeakCount>
      <stageThreshold>-1.0886969566345215e+00</stageThreshold>
      <weakClassifiers>
        <_>
          <internalNodes>
            0 -1 40 -8.2297768676653504e-04</internalNodes>
          <leafValues>
            4.7087377309799194e-01 -5.0000000000000000e-01</leafValues></_>
        <_>
          <internalNodes>
            0 -1 33 -6.7019714042544365e-03</internalNodes>
          <leafValues>
            7.2161018848419189e-01 -3.0837589502334595e-01</leafValues></_>
        <_>
          <internalNodes>
            0 -1 47 1.2111214455217123e-03</internalNodes>
          <leafValues>
            -2.6301866769790649e-01 8.0112797021865845e-01</leafValues></_>
        <_>
          <internalNodes>
            0 -1 62 6.0659588780254126e-04</internalNodes>
          <leafValues>
            4.5058074593544006e-01 -4.7809785604476929e-01</leafValues></_>
        <_>
          <internalNodes>
            0 -1 46 -1.9450652180239558e-03</internalNodes>
          <leafValues>
            5.8299380540847778e-01 -3.7030741572380066e-01</leafValues></_>
        <_>
          <internalNodes>
            0 -1 64 -5.3663384169340134e-03</internalNodes>
          <leafValues>
            8.4931218624114990e-01 -3.5961765050888062e-01</leafValues></_>
        <_>
          <internalNodes>
            0 -1 49 -3.8314372068271041e-04</internalNodes>
          <leafValues>
            6.7720097303390503e-01 -3.0381351709365845e-01</leafValues></_>
        <_>
          <internalNodes>
            0 -1 41 -2.6799734681844711e-02</internalNodes>
          <leafValues>
            5.5330282449722290e-01 -5.2291375398635864e-01</leafValues></_></weakClassifiers></_>
    <!-- stage 8 -->
    <_>
      <maxWeakCount>7</maxWeakCount>
      <stageThreshold>-6.2902420759201050e-01</stageThreshold>
      <weakClassifiers>
        <_>
          <internalNodes>
            0 -1 60 -2.4924071040004492e-03</internalNodes>
          <leafValues>
            5.7368421554565430e-01 -5.1904761791229248e-01</leafValues></_>
        <_>
          <internalNodes>
            0 -1 22 3.3445497974753380e-03</internalNodes>
          <leafValues>
            -3.6242112517356873e-01 7.8096121549606323e-01</leafValues></_>
        <_>
          <internalNodes>
            0 -1 70 1.0872706770896912e-03</internalNodes>
          <leafValues>
            -2.8026321530342102e-01 7.0808023214340210e-01</leafValues></_>
        <_>
          <internalNodes>
            0 -1 44 -7.4804027099162340e-04</internalNodes>
          <leafValues>
            6.5323287248611450e-01 -3.4750840067863464e-01</leafValues></_>
        <_>
          <internalNodes>
            0 -1 58 -1.2575573055073619e-04</internalNodes>
          <leafValues>
            5.6347280740737915e-01 -3.8245317339897156e-01</leafValues></_>
        <_>
          <internalNodes>
            0 -1 55 -2.3099033534526825e-01</internalNodes>
          <leafValues>
            8.7478458881378174e-01 -2.1779985725879669e-01</leafValues></_>
        <_>
          <internalNodes>
            0 -1 42 -7.5774895958602428e-04</internalNodes>
          <leafValues>
            4.7972795367240906e-01 -3.7440419197082520e-01</leafValues></_></weakClassifiers></_>
    <!-- stage 9 -->
    <_>
      <maxWeakCount>9</maxWeakCount>
      <stageThreshold>-5.4121106863021851e-01</stageThreshold>
      <weakClassifiers>
        <_>
          <internalNodes>
            0 -1 15 -1.0174984345212579e-03</internalNodes>
          <leafValues>
            3.6821705102920532e-01 -6.6901409626007080e-01</leafValues></_>
        <_>
          <internalNodes>
            0 -1 63 -7.6009710028301924e-05</internalNodes>
          <leafValues>
            -7.0411944389343262e-01 2.7256575226783752e-01</leafValues></_>
        <_>
          <internalNodes>
            0 -1 7 -6.9415839388966560e-03</internalNodes>
          <leafValues>
            5.3418767452239990e-01 -3.6710402369499207e-01</leafValues></_>
        <_>
          <internalNodes>
            0 -1 36 4.0364738553762436e-02</internalNodes>
          <leafValues>
            -2.2031418979167938e-01 6.5838044881820679e-01</leafValues></_>
        <_>
          <internalNodes>
            0 -1 4 -1.4785273000597954e-02</internalNodes>
          <leafValues>
            8.2982367277145386e-01 -2.0421783626079559e-01</leafValues></_>
        <_>
          <internalNodes>
            0 -1 37 -6.2540718354284763e-03</internalNodes>
          <leafValues>
            9.0290307998657227e-01 -1.5921792387962341e-01</leafValues></_>
        <_>
          <internalNodes>
            0 -1 68 -2.0482530817389488e-04</internalNodes>
          <leafValues>
            -7.7303361892700195e-01 2.7554878592491150e-01</leafValues></_>
        <_>
          <internalNodes>
            0 -1 56 -6.4207785762846470e-03</internalNodes>
          <leafValues>
            4.4510468840599060e-01 -3.8496184349060059e-01</leafValues></_>
        <_>
          <internalNodes>
            0 -1 69 8.5150887025520205e-04</internalNodes>
          <leafValues>
            1.8342830240726471e-01 -8.0821931362152100e-01</leafValues></_></weakClassifiers></_></stages>
  <features>
    <_>
      <rects>
        <_>
          0 0 2 18 -1.</_>
        <_>
          0 9 2 9 2.</_></rects>
      <tilted>0</tilted></_>
    <_>
      <rects>
        <_>
          0 3 4 2 -1.</_>
        <_>
          2 3 2 2 2.</_></rects>
      <tilted>0</tilted></_>
    <_>
      <rects>
        <_>
          0 6 1 9 -1.</_>
        <_>
          0 9 1 3 3.</_></rects>
      <tilted>0</tilted></_>
    <_>
      <rects>
        <_>
          0 8 24 3 -1.</_>
        <_>
          12 8 12 3 2.</_></rects>
      <tilted>0</tilted></_>
    <_>
      <rects>
        <_>
          0 18 9 5 -1.</_>
        <_>
          3 18 3 5 3.</_></rects>
      <tilted>0</tilted></_>
    <_>
      <rects>
        <_>
          1 0 8 2 -1.</_>
        <_>
          1 0 4 1 2.</_>
        <_>
          5 1 4 1 2.</_></rects>
      <tilted>0</tilted></_>
    <_>
      <rects>
        <_>
          1 4 17 4 -1.</_>
        <_>
          1 6 17 2 2.</_></rects>
      <tilted>0</tilted></_>
    <_>
      <rects>
        <_>
          1 9 12 2 -1.</_>
        <_>
          5 9 4 2 3.</_></rects>
      <tilted>0</tilted></_>
    <_>
      <rects>
        <_>
          2 20 12 4 -1.</_>
        <_>
          2 22 12 2 2.</_></rects>
      <tilted>0</tilted></_>
    <_>
      <rects>
        <_>
          2 20 15 4 -1.</_>
        <_>
          2 22 15 2 2.</_></rects>
      <tilted>0</tilted></_>
    <_>
      <rects>
        <_>
          3 1 1 2 -1.</_>
        <_>
          3 2 1 1 2.</_></rects>
      <tilted>0</tilted></_>
    <_>
      <rects>
        <_>
          3 12 8 5 -1.</_>
        <_>
          7 12 4 5 2.</_></rects>
      <tilted>0</tilted></_>
    <_>
      <rects>
        <_>
          4 1 28 12 -1.</_>
        <_>
          4 1 14 6 2.</_>
        <_>
          18 7 14 6 2.</_></rects>
      <tilted>0</tilted></_>
    <_>
      <rects>
        <_>
          4 9 10 10 -1.</_>
        <_>
          9 9 5 10 2.</_></rects>
      <tilted>0</tilted></_>
    <_>
      <rects>
        <_>
          4 12 3 2 -1.</_>
        <_>
          4 13 3 1 2.</_></rects>
      <tilted>0</tilted></_>
    <_>
      <rects>
        <_>
          4 12 6 4 -1.</_>
        <_>
          7 12 3 4 2.</_></rects>
      <tilted>0</tilted></_>
    <_>
      <rects>
        <_>
          4 16 22 8 -1.</_>
        <_>
          4 20 22 4 2.</_></rects>
      <tilted>0</tilted></_>
    <_>
      <rects>
        <_>
          5 0 18 24 -1.</_>
        <_>
          5 12 18 12 2.</_></rects>
      <tilted>0</tilted></_>
    <_>
      <rects>
        <_>
          5 9 6 2 -1.</_>
        <_>
          7 9 2 2 3.</_></rects>
      <tilted>0</tilted></_>
    <_>
      <rects>
        <_>
          5 19 4 3 -1.</_>
        <_>
          7 19 2 3 2.</_></rects>
      <tilted>0</tilted></_>
    <_>
      <rects>
        <_>
          6 0 4 2 -1.</_>
        <_>
          6 1 4 1 2.</_></rects>
      <tilted>0</tilted></_>
    <_>
      <rects>
        <_>
          6 1 20 2 -1.</_>
        <_>
          6 1 10 1 2.</_>
        <_>
          16 2 10 1 2.</_></rects>
      <tilted>0</tilted></_>
    <_>
      <rects>
        <_>
          6 3 4 8 -1.</_>
        <_>
          6 3 2 4 2.</_>
        <_>
          8 7 2 4 2.</_></rects>
      <tilted>0</tilted></_>
    <_>
      <rects>
        <_>
          6 11 4 4 -1.</_>
        <_>
          6 13 4 2 2.</_></rects>
      <tilted>0</tilted></_>
    <_>
      <rects>
        <_>
          6 21 20 3 -1.</_>
        <_>
          16 21 10 3 2.</_></rects>
      <tilted>0</tilted></_>
    <_>
      <rects>
        <_>
          7 0 14 2 -1.</_>
        <_>
          7 1 14 1 2.</_></rects>
      <tilted>0</tilted></_>
    <_>
      <rects>
        <_>
          7 1 17 9 -1.</_>
        <_>
          7 4 17 3 3.</_></rects>
      <tilted>0</tilted></_>
    <_>
      <rects>
        <_>
          7 9 12 2 -1.</_>
        <_>
          7 10 12 1 2.</_></rects>
      <tilted>0</tilted></_>
    <_>
      <rects>
        <_>
          7 12 5 12 -1.</_>
        <_>
          7 16 5 4 3.</_></rects>
      <tilted>0</tilted></_>
    <_>
      <rects>
        <_>
          7 12 10 12 -1.</_>
        <_>
          7 18 10 6 2.</_></rects>
      <tilted>0</tilted></_>
    <_>
      <rects>
        <_>
          7 14 5 9 -1.</_>
        <_>
          7 17 5 3 3.</_></rects>
      <tilted>0</tilted></_>
    <_>
      <rects>
        <_>
          8 1 2 6 -1.</_>
        <_>
          8 3 2 2 3.</_></rects>
      <tilted>0</tilted></_>
    <_>
      <rects>
        <_>
          8 8 7 4 -1.</_>
        <_>
          8 10 7 2 2.</_></rects>
      <tilted>0</tilted></_>
    <_>
      <rects>
        <_>
          8 9 4 6 -1.</_>
        <_>
          8 11 4 2 3.</_></rects>
      <tilted>0</tilted></_>
    <_>
      <rects>
        <_>
          8 10 6 3 -1.</_>
        <_>
          8 11 6 1 3.</_></rects>
      <tilted>0</tilted></_>
    <_>
      <rects>
        <_>
          8 20 14 2 -1.</_>
        <_>
          8 21 14 1 2.</_></rects>
      <tilted>0</tilted></_>
    <_>
      <rects>
        <_>
          9 1 5 21 -1.</_>
        <_>
          9 8 5 7 3.</_></rects>
      <tilted>0</tilted></_>
    <_>
      <rects>
        <_>
          10 0 13 3 -1.</_>
        <_>
          10 1 13 1 3.</_></rects>
      <tilted>0</tilted></_>
    <_>
      <rects>
        <_>
          10 1 11 6 -1.</_>
        <_>
          10 4 11 3 2.</_></rects>
      <tilted>0</tilted></_>
    <_>
      <rects>
        <_>
          10 7 22 6 -1.</_>
        <_>
          10 10 22 3 2.</_></rects>
      <tilted>0</tilted></_>
    <_>
      <rects>
        <_>
          10 9 12 4 -1.</_>
        <_>
          14 9 4 4 3.</_></rects>
      <tilted>0</tilted></_>
    <_>
      <rects>
        <_>
          10 11 7 12 -1.</_>
        <_>
          10 17 7 6 2.</_></rects>
      <tilted>0</tilted></_>
    <_>
      <rects>
        <_>
          11 0 18 2 -1.</_>
        <_>
          11 0 9 1 2.</_>
        <_>
          20 1 9 1 2.</_></rects>
      <tilted>0</tilted></_>
    <_>
      <rects>
        <_>
          11 12 8 4 -1.</_>
        <_>
          15 12 4 4 2.</_></rects>
      <tilted>0</tilted></_>
    <_>
      <rects>
        <_>
          11 17 3 2 -1.</_>
        <_>
          11 18 3 1 2.</_></rects>
      <tilted>0</tilted></_>
    <_>
      <rects>
        <_>
          12 1 20 6 -1.</_>
        <_>
          12 1 10 3 2.</_>
        <_>
          22 4 10 3 2.</_></rects>
      <tilted>0</tilted></_>
    <_>
      <rects>
        <_>
          12 2 10 2 -1.</_>
        <_>
          12 3 10 1 2.</_></rects>
      <tilted>0</tilted></_>
    <_>
      <rects>
        <_>
          12 18 9 4 -1.</_>
        <_>
          12 20 9 2 2.</_></rects>
      <tilted>0</tilted></_>
    <_>
      <rects>
        <_>
          13 1 18 6 -1.</_>
        <_>
          13 1 9 3 2.</_>
        <_>
          22 4 9 3 2.</_></rects>
      <tilted>0</tilted></_>
    <_>
      <rects>
        <_>
          13 9 2 2 -1.</_>
        <_>
          13 10 2 1 2.</_></rects>
      <tilted>0</tilted></_>
    <_>
      <rects>
        <_>
          15 2 2 8 -1.</_>
        <_>
          15 6 2 4 2.</_></rects>
      <tilted>0</tilted></_>
    <_>
      <rects>
        <_>
          15 11 8 6 -1.</_>
        <_>
          15 14 8 3 2.</_></rects>
      <tilted>0</tilted></_>
    <_>
      <rects>
        <_>
          15 18 17 6 -1.</_>
        <_>
          15 21 17 3 2.</_></rects>
      <tilted>0</tilted></_>
    <_>
      <rects>
        <_>
          17 3 1 9 -1.</_>
        <_>
          17 6 1 3 3.</_></rects>
      <tilted>0</tilted></_>
    <_>
      <rects>
        <_>
          17 3 7 6 -1.</_>
        <_>
          17 5 7 2 3.</_></rects>
      <tilted>0</tilted></_>
    <_>
      <rects>
        <_>
          18 0 10 24 -1.</_>
        <_>
          18 12 10 12 2.</_></rects>
      <tilted>0</tilted></_>
    <_>
      <rects>
        <_>
          18 5 11 6 -1.</_>
        <_>
          18 7 11 2 3.</_></rects>
      <tilted>0</tilted></_>
    <_>
      <rects>
        <_>
          18 8 4 12 -1.</_>
        <_>
          18 12 4 4 3.</_></rects>
      <tilted>0</tilted></_>
    <_>
      <rects>
        <_>
          18 15 1 2 -1.</_>
        <_>
          18 16 1 1 2.</_></rects>
      <tilted>0</tilted></_>
    <_>
      <rects>
        <_>
          19 0 7 24 -1.</_>
        <_>
          19 12 7 12 2.</_></rects>
      <tilted>0</tilted></_>
    <_>
      <rects>
        <_>
          19 4 5 6 -1.</_>
        <_>
          19 6 5 2 3.</_></rects>
      <tilted>0</tilted></_>
    <_>
      <rects>
        <_>
          19 5 10 6 -1.</_>
        <_>
          19 7 10 2 3.</_></rects>
      <tilted>0</tilted></_>
    <_>
      <rects>
        <_>
          19 12 6 3 -1.</_>
        <_>
          22 12 3 3 2.</_></rects>
      <tilted>0</tilted></_>
    <_>
      <rects>
        <_>
          20 0 1 2 -1.</_>
        <_>
          20 1 1 1 2.</_></rects>
      <tilted>0</tilted></_>
    <_>
      <rects>
        <_>
          22 7 7 6 -1.</_>
        <_>
          22 9 7 2 3.</_></rects>
      <tilted>0</tilted></_>
    <_>
      <rects>
        <_>
          22 8 1 12 -1.</_>
        <_>
          22 12 1 4 3.</_></rects>
      <tilted>0</tilted></_>
    <_>
      <rects>
        <_>
          22 20 9 4 -1.</_>
        <_>
          22 22 9 2 2.</_></rects>
      <tilted>0</tilted></_>
    <_>
      <rects>
        <_>
          26 4 6 14 -1.</_>
        <_>
          26 4 3 7 2.</_>
        <_>
          29 11 3 7 2.</_></rects>
      <tilted>0</tilted></_>
    <_>
      <rects>
        <_>
          28 0 2 2 -1.</_>
        <_>
          28 1 2 1 2.</_></rects>
      <tilted>0</tilted></_>
    <_>
      <rects>
        <_>
          28 0 3 2 -1.</_>
        <_>
          28 1 3 1 2.</_></rects>
      <tilted>0</tilted></_>
    <_>
      <rects>
        <_>
          28 11 4 2 -1.</_>
        <_>
          30 11 2 2 2.</_></rects>
      <tilted>0</tilted></_>
    <_>
      <rects>
        <_>
          30 0 2 4 -1.</_>
        <_>
          30 2 2 2 2.</_></rects>
      <tilted>0</tilted></_></features></cascade>
</opencv_storage>
