<?xml version="1.0"?>
<opencv_storage>
<stage4>
  <maxWeakCount>6</maxWeakCount>
  <stageThreshold>-2.8738465905189514e-01</stageThreshold>
  <weakClassifiers>
    <_>
      <internalNodes>
        0 -1 242811 -2.8131024446338415e-03</internalNodes>
      <leafValues>
        5.4189944267272949e-01 -4.3891403079032898e-01</leafValues></_>
    <_>
      <internalNodes>
        0 -1 262242 1.3733301311731339e-03</internalNodes>
      <leafValues>
        2.8285697102546692e-01 -8.1869179010391235e-01</leafValues></_>
    <_>
      <internalNodes>
        0 -1 111661 4.2533010244369507e-02</internalNodes>
      <leafValues>
        -3.1905332207679749e-01 8.1422185897827148e-01</leafValues></_>
    <_>
      <internalNodes>
        0 -1 214863 -2.7727071195840836e-02</internalNodes>
      <leafValues>
        4.8500344157218933e-01 -4.1120570898056030e-01</leafValues></_>
    <_>
      <internalNodes>
        0 -1 76797 -3.1515317969024181e-03</internalNodes>
      <leafValues>
        3.8404294848442078e-01 -6.7426478862762451e-01</leafValues></_>
    <_>
      <internalNodes>
        0 -1 226007 -4.2259358451701701e-05</internalNodes>
      <leafValues>
        3.7698706984519958e-01 -5.2803534269332886e-01</leafValues></_></weakClassifiers></stage4>
</opencv_storage>
